,0,1,2,3,4,5,6,7,8,9,10,11,12,13,14,15,16,17,18,19,20,21,22,23,24,25,26,27,28,29,30,31,32,33,34,35,36,37,38,39,40,41,42,43,44,45,46,47,48,49,50,51,52,53,54,55,56,57,58,59,60,61,62,63,64,65,66,67,68,69,70,71,72,73,74,75,76,77,78,79,80,81,82,83,84,85,86,87,88,89,90,91,92,93,94,95,96,97,98,99,100,101,102,103,104,105,106,107,108,109,110,111,112,113,114,115,116,117,118,119,120,121,122,123,124,125,126,127
kim10,-0.07996122539043427,0.04161087051033974,0.04326987266540527,-0.1486450731754303,-0.1336754858493805,-0.04046633839607239,-0.08177500218153,-0.14043675363063812,0.11156190931797028,-0.16328170895576477,0.19563129544258118,-0.11034171283245087,-0.24863657355308533,-0.028945788741111755,-0.039654046297073364,0.241355299949646,-0.19143496453762054,-0.14796486496925354,-0.08215807378292084,0.011957526206970215,0.03714025020599365,0.020060233771800995,0.046122778207063675,0.07756055891513824,-0.13401268422603607,-0.3256666958332062,-0.10083909332752228,-0.04612800478935242,-0.10282371938228607,-0.033621564507484436,-0.04560915380716324,-0.00852232426404953,-0.21362033486366272,-0.01443002000451088,0.05537690967321396,0.07741895318031311,0.019165003672242165,-0.14855802059173584,0.15136799216270447,0.017369572073221207,-0.30377131700515747,0.0764460563659668,0.09862696379423141,0.19151242077350616,0.16721265017986298,-0.008510872721672058,-0.0034891851246356964,-0.1245139092206955,0.15485486388206482,-0.1637127846479416,0.007771134376525879,0.08977868407964706,0.037396758794784546,0.030759934335947037,0.0154695063829422,-0.11313292384147644,0.06512370705604553,0.1875804364681244,-0.12498806416988373,-0.02315809205174446,0.09029126167297363,-0.08119437098503113,0.015249483287334442,-0.10868112742900848,0.22069452702999115,0.10903620719909668,-0.11298452317714691,-0.23866544663906097,0.07314972579479218,-0.1221446767449379,-0.09079954028129578,0.043788060545921326,-0.18848440051078796,-0.1608401983976364,-0.2954663038253784,-0.018220528960227966,0.25644993782043457,0.12515565752983093,-0.20155976712703705,0.06470350921154022,-0.034391820430755615,0.08189726620912552,0.1030787006020546,0.17045889794826508,0.06356710195541382,0.083856001496315,-0.07813490927219391,-0.011971522122621536,0.25713515281677246,-0.11038002371788025,-0.01367102563381195,0.29720455408096313,-0.028760850429534912,0.026865921914577484,0.021847449243068695,-0.019994154572486877,-0.11719880253076553,0.028388284146785736,-0.12503565847873688,-0.00411774218082428,0.05754373222589493,0.015542246401309967,0.024321511387825012,0.1025836169719696,-0.1828162521123886,0.06211567297577858,-0.06629172712564468,0.028944186866283417,0.011530309915542603,0.02485651522874832,-0.05436372011899948,-0.09628532826900482,0.08705505728721619,-0.22249636054039001,0.21176470816135406,0.1877163052558899,0.053425706923007965,0.07391321659088135,0.12675321102142334,0.0553891658782959,-0.010767742991447449,0.052067987620830536,-0.15834110975265503,-0.02812691032886505,0.13379669189453125,0.002660319209098816,0.12815240025520325,0.004509333521127701
kim2,-0.0994165688753128,0.08622083067893982,0.0780850425362587,-0.06472494453191757,-0.11276635527610779,-0.03890208899974823,-0.035342708230018616,-0.149756520986557,0.09788109362125397,-0.17407768964767456,0.20844745635986328,-0.11758730560541153,-0.19687119126319885,-0.07131130248308182,-0.008085384964942932,0.2089344561100006,-0.19598323106765747,-0.11960586160421371,-0.04411853477358818,0.05415588617324829,0.08604273945093155,-0.01712135225534439,0.06238380819559097,0.020943429321050644,-0.09184712916612625,-0.3735540211200714,-0.09554300457239151,-0.08164618164300919,-0.1006518304347992,0.001004151999950409,-0.016335368156433105,0.05843290686607361,-0.16783662140369415,-0.013792984187602997,-0.0063922107219696045,0.06709856539964676,-0.037355467677116394,-0.07097205519676208,0.1541578769683838,-0.0015865378081798553,-0.26458802819252014,0.012526020407676697,0.06146173179149628,0.2087462991476059,0.14155006408691406,0.008172929286956787,0.040886156260967255,-0.10923820734024048,0.1391938030719757,-0.13698020577430725,0.022607523947954178,0.05808933079242706,0.04829716682434082,0.03625111281871796,0.09257595241069794,-0.1473940759897232,0.05577880144119263,0.09762205183506012,-0.08553784340620041,-0.008461283519864082,0.07162119448184967,-0.04206854850053787,0.007176008075475693,-0.12826089560985565,0.22874000668525696,0.08796291798353195,-0.08036449551582336,-0.16770656406879425,0.0760660246014595,-0.07765188068151474,-0.08873951435089111,0.05592820420861244,-0.18602284789085388,-0.1672097146511078,-0.2779555320739746,-0.04500207304954529,0.3490867614746094,0.08307025581598282,-0.19605880975723267,0.008571967482566833,-0.0002965852618217468,-0.005409363657236099,0.14961686730384827,0.20077064633369446,0.033355019986629486,0.10172103345394135,-0.07625894248485565,-0.03122396022081375,0.1933048963546753,-0.10386694967746735,-0.0592571422457695,0.23221339285373688,-0.03743511438369751,0.034354932606220245,0.025501325726509094,-0.09253410995006561,-0.06905316561460495,0.06822867691516876,-0.15489590167999268,-0.03362932801246643,0.004226058721542358,-0.07490924000740051,-0.06838293373584747,0.04998961463570595,-0.1667575240135193,0.08352439105510712,-0.014932764694094658,0.06971301138401031,-0.030710145831108093,0.0022790655493736267,-0.12401652336120605,-0.012100189924240112,0.10044979304075241,-0.21171362698078156,0.15834426879882812,0.16254839301109314,0.02184043452143669,0.11926987767219543,0.12209652364253998,0.0831545740365982,-0.029670599848031998,0.04907197505235672,-0.1976989507675171,-0.003710314631462097,0.14732399582862854,0.024033322930336,0.09289711713790894,0.0029442571103572845
kim3,-0.10706202685832977,0.05550827831029892,0.0653376430273056,-0.1381838172674179,-0.1185714602470398,-0.0291517972946167,-0.08429193496704102,-0.14334654808044434,0.13622191548347473,-0.1747363805770874,0.1712666153907776,-0.11463605612516403,-0.2047514021396637,-0.07724598050117493,-0.08088261634111404,0.23741388320922852,-0.18395674228668213,-0.174565389752388,-0.04489520937204361,-0.0024244114756584167,0.114453986287117,-0.012590274214744568,0.0005565881729125977,0.0463402234017849,-0.12220796942710876,-0.36939093470573425,-0.0998254120349884,-0.06279522180557251,-0.10285070538520813,-0.02325589209794998,-0.006597176194190979,0.03398999571800232,-0.2077244520187378,0.006969429552555084,0.03595195710659027,0.07749992609024048,0.016509750857949257,-0.11696197837591171,0.1426178216934204,-0.010052435100078583,-0.25941887497901917,0.0516279935836792,0.11181902140378952,0.17387762665748596,0.1876290738582611,0.005806058645248413,0.004241630434989929,-0.12826862931251526,0.18531925976276398,-0.15566100180149078,0.0030748695135116577,0.10427556931972504,0.034831419587135315,0.02666519582271576,0.09207490086555481,-0.09047789871692657,0.05204332619905472,0.14129957556724548,-0.11200389266014099,-0.013352006673812866,0.09301994740962982,-0.09559839963912964,-0.060095418244600296,-0.14709828794002533,0.22102394700050354,0.09091739356517792,-0.124859519302845,-0.21339848637580872,0.136511892080307,-0.09479722380638123,-0.06407797336578369,0.026890821754932404,-0.1785782277584076,-0.14082609117031097,-0.25215718150138855,0.01511857658624649,0.328033447265625,0.10888484865427017,-0.21444538235664368,0.05994950234889984,-0.0021592602133750916,0.062438562512397766,0.12847232818603516,0.1714271754026413,0.056222863495349884,0.028979411348700523,-0.06406107544898987,-0.021582089364528656,0.22014577686786652,-0.07181164622306824,-0.0015378519892692566,0.25414296984672546,-0.04693560302257538,0.03706561028957367,-0.004468172788619995,-0.05484170466661453,-0.1245194673538208,0.05295021831989288,-0.14411577582359314,-0.003964163362979889,0.03288346529006958,0.023173067718744278,-0.022596903145313263,0.09115836024284363,-0.1051856204867363,0.04469040781259537,-0.06587623059749603,0.04360726475715637,-0.02052423357963562,-0.01085219532251358,-0.10467853397130966,-0.05932920426130295,0.0643228143453598,-0.1921086460351944,0.18150518834590912,0.12158606946468353,0.05287844315171242,0.08135983347892761,0.1425633579492569,0.08148263394832611,0.02117077261209488,0.026862159371376038,-0.20115801692008972,-0.022593647241592407,0.14714506268501282,-0.018269121646881104,0.07455866038799286,-0.03204470872879028
kim4,-0.11143709719181061,0.016852442175149918,0.07041660696268082,-0.07637631148099899,-0.11998625099658966,-0.05101041495800018,-0.08280224353075027,-0.11904598027467728,0.025044940412044525,-0.17593726515769958,0.17335550487041473,-0.125585675239563,-0.2043275237083435,-0.05009859800338745,-0.060365740209817886,0.20499148964881897,-0.10615493357181549,-0.11598581075668335,-0.028160765767097473,0.06590087711811066,0.1357954442501068,0.02744288370013237,0.004737727344036102,0.06581071019172668,-0.08059828728437424,-0.3489266633987427,-0.12267199903726578,-0.03184545040130615,-0.12259422242641449,-0.0062746331095695496,-0.05073507875204086,0.045153237879276276,-0.18527965247631073,0.019593343138694763,0.01314353197813034,0.09169729053974152,0.01864382065832615,-0.07476986944675446,0.11953133344650269,0.037599533796310425,-0.2921534776687622,0.06429668515920639,0.057855259627103806,0.2140786051750183,0.15141478180885315,0.01987999677658081,0.03698094189167023,-0.08808700740337372,0.1363772749900818,-0.18084834516048431,0.03526090085506439,0.08830733597278595,0.08855431526899338,0.007507212460041046,0.03533751890063286,-0.10951009392738342,0.04055282101035118,0.13951343297958374,-0.11187708377838135,0.03946385905146599,0.08227402716875076,-0.09614299237728119,0.014450419694185257,-0.1422966569662094,0.1920805424451828,0.08067045360803604,-0.12517127394676208,-0.1889406144618988,0.09361028671264648,-0.1289213001728058,-0.07659213989973068,0.046501487493515015,-0.20221146941184998,-0.19916579127311707,-0.3074054419994354,0.051701582968235016,0.29651331901550293,0.14501965045928955,-0.18415535986423492,0.060295455157756805,0.012890372425317764,0.07559351623058319,0.12685659527778625,0.1926431506872177,0.07711905986070633,0.07287175953388214,-0.06983605027198792,-0.005105331540107727,0.2247130572795868,-0.10812783241271973,-0.03206310421228409,0.25818192958831787,-0.05102049559354782,0.046235084533691406,-0.0050803497433662415,-0.03560037910938263,-0.05572117120027542,0.03411416336894035,-0.10249350219964981,0.04904448986053467,-0.007266834378242493,-0.05321657657623291,-0.016951389610767365,0.08295957744121552,-0.1393614113330841,0.06958325207233429,-0.09675372391939163,0.03944706916809082,-0.03594823181629181,-0.005183428525924683,-0.13790230453014374,-0.03300783038139343,0.06487424671649933,-0.1897878497838974,0.18334509432315826,0.16737186908721924,0.06596110761165619,0.09201804548501968,0.15026763081550598,0.08248366415500641,0.019588597118854523,0.015576831996440887,-0.19604827463626862,-0.0339827686548233,0.17753589153289795,-0.003089800477027893,0.08241062611341476,-0.007244184613227844
kim5,-0.09290863573551178,0.011435911059379578,0.0739043727517128,-0.08589993417263031,-0.1472097635269165,-0.054007962346076965,-0.04538439214229584,-0.16142845153808594,0.06291086971759796,-0.13266302645206451,0.190687358379364,-0.1517670750617981,-0.19960430264472961,-0.038562409579753876,-0.047464922070503235,0.19185209274291992,-0.1327722668647766,-0.17495790123939514,-0.03515631705522537,0.04340759664773941,0.1127917468547821,-0.005508728325366974,-0.013670261949300766,0.08483010530471802,-0.1416727900505066,-0.31508976221084595,-0.11133711040019989,-0.03231947869062424,-0.10474380105733871,-0.050394512712955475,-0.05627121776342392,0.07996861636638641,-0.2014688402414322,-0.032481130212545395,0.02327798306941986,0.07639466226100922,0.0027896538376808167,-0.09280505776405334,0.11350809037685394,0.014740273356437683,-0.2885613441467285,0.04554290324449539,0.08320555090904236,0.1937905102968216,0.15423502027988434,-0.006860509514808655,0.0027206242084503174,-0.0837843269109726,0.09314866364002228,-0.1938163936138153,-0.026946106925606728,0.11446675658226013,0.023077137768268585,0.04474350064992905,-0.009356111288070679,-0.11244828999042511,0.050623275339603424,0.10203231126070023,-0.10872388631105423,0.023147011175751686,0.09240490198135376,-0.12930098176002502,-0.028696659952402115,-0.12248748540878296,0.17081251740455627,0.07990869134664536,-0.11308443546295166,-0.2056514024734497,0.0370694138109684,-0.11029112339019775,-0.11570954322814941,0.05021331086754799,-0.19663971662521362,-0.15891899168491364,-0.31219029426574707,0.009691275656223297,0.3823617398738861,0.05168307572603226,-0.2128353714942932,0.06589272618293762,-0.005105402320623398,0.06753001362085342,0.11286716163158417,0.15161801874637604,0.06169549748301506,0.07343371957540512,-0.09909402579069138,0.010385222733020782,0.20040376484394073,-0.08955402672290802,-0.022640354931354523,0.21813303232192993,-0.052472393959760666,0.06745653599500656,0.05932324379682541,0.057141706347465515,-0.06083112210035324,0.046696387231349945,-0.09509788453578949,0.030622728168964386,0.05156956613063812,-0.037180133163928986,-0.019199106842279434,0.0981849879026413,-0.12319987267255783,0.11786288022994995,-0.04782884567975998,0.04786860942840576,-0.013658039271831512,-0.003431476652622223,-0.10006775707006454,-0.04461608827114105,0.0703953355550766,-0.21827906370162964,0.1560688614845276,0.1788843274116516,0.02542448788881302,0.06852105259895325,0.1092713251709938,0.06672780960798264,-0.03271138295531273,0.07548992335796356,-0.17543545365333557,-0.03358578681945801,0.13423877954483032,-0.011643178761005402,0.06173805892467499,-0.015750426799058914
kim6,-0.09453637897968292,0.014765392988920212,0.05113587528467178,-0.09164970368146896,-0.08731226623058319,-0.07063263654708862,-0.08997557312250137,-0.14011621475219727,0.09741751849651337,-0.12319578230381012,0.1813017576932907,-0.12876738607883453,-0.2253323346376419,-0.10271649062633514,-0.07352040708065033,0.2569166123867035,-0.1304117888212204,-0.19081053137779236,-0.05448880046606064,-0.0069467127323150635,0.10650015622377396,-0.007806193083524704,0.0018202625215053558,0.07660476863384247,-0.12971453368663788,-0.2921186685562134,-0.09182785451412201,0.004484541714191437,-0.06534469127655029,-0.07356959581375122,-0.05808374285697937,0.05711394548416138,-0.2256723940372467,-0.04207469895482063,0.07359915971755981,0.11819325387477875,0.03538987785577774,-0.13364377617835999,0.1660240888595581,0.016979936510324478,-0.27186089754104614,0.05273175984621048,0.06558367609977722,0.20971998572349548,0.17600621283054352,0.0007053613662719727,0.013441566377878189,-0.1852879524230957,0.13800543546676636,-0.1670982837677002,0.021347399801015854,0.14791961014270782,0.018228717148303986,0.01975921541452408,-0.001690879464149475,-0.1194920539855957,0.04153089225292206,0.1709800660610199,-0.11647996306419373,-0.01539231464266777,0.09789665043354034,-0.06715811789035797,-0.05822286754846573,-0.18200823664665222,0.1462407112121582,0.0553397461771965,-0.13715633749961853,-0.23571960628032684,0.09718596935272217,-0.11897967010736465,-0.08220691233873367,0.05396357551217079,-0.16711604595184326,-0.18377846479415894,-0.33647337555885315,-0.0038192346692085266,0.3195400834083557,0.09275014698505402,-0.25471651554107666,0.09087958931922913,0.024188295006752014,0.0603308379650116,0.14057570695877075,0.17731451988220215,0.051698245108127594,0.08663685619831085,-0.06101426109671593,-0.021326035261154175,0.23726557195186615,-0.048938214778900146,-0.02291163057088852,0.22148826718330383,-0.021375156939029694,0.04677095264196396,0.041621461510658264,0.02113795280456543,-0.053960010409355164,0.04033716022968292,-0.14807559549808502,0.007210925221443176,0.03180783987045288,-0.0004050545394420624,-0.011476580053567886,0.09745548665523529,-0.1193651407957077,0.1096617728471756,-0.02576393075287342,0.039981089532375336,-0.02320624142885208,-0.020709417760372162,-0.11427918076515198,-0.05684320628643036,0.09583979845046997,-0.2162061333656311,0.16803474724292755,0.19097056984901428,0.08386632800102234,0.06916927546262741,0.16370442509651184,0.11274504661560059,0.007132634520530701,0.04132765531539917,-0.19049720466136932,-0.02140451967716217,0.1324460804462433,-0.029261715710163116,0.1069224551320076,-0.009636685252189636
kim7,-0.1490764170885086,0.059760674834251404,0.056846074759960175,-0.13725274801254272,-0.1471172571182251,-0.005452573299407959,-0.09914940595626831,-0.08795110881328583,0.0984886884689331,-0.19722871482372284,0.14644277095794678,-0.1416187286376953,-0.22101649641990662,0.002235628664493561,-0.05266551673412323,0.23361366987228394,-0.14181596040725708,-0.175804004073143,-0.0395013764500618,0.027756467461586,0.11838077008724213,0.02386036515235901,-0.05285181105136871,0.061597030609846115,-0.10584469139575958,-0.34018152952194214,-0.1006728857755661,-0.03959288448095322,-0.13260850310325623,-0.0638413280248642,-0.03788982331752777,0.008800454437732697,-0.22003105282783508,0.0011167265474796295,-0.010347455739974976,0.08185116946697235,-0.004955155774950981,-0.09381743520498276,0.16004422307014465,0.01250917837023735,-0.2857498526573181,0.07547498494386673,0.07986791431903839,0.18963217735290527,0.14251595735549927,0.0033644884824752808,-0.02237379550933838,-0.13327206671237946,0.10995403677225113,-0.19359874725341797,0.03691861033439636,0.1223442479968071,0.019183076918125153,0.04343809559941292,0.039465777575969696,-0.09692226350307465,0.06133294850587845,0.12292449921369553,-0.09552376717329025,-0.005560416728258133,0.09478998184204102,-0.09658870100975037,-0.033032312989234924,-0.14243799448013306,0.22089076042175293,0.10131403803825378,-0.07527107000350952,-0.20949092507362366,0.1371883749961853,-0.07321350276470184,-0.1014367938041687,0.052546024322509766,-0.16111382842063904,-0.14606279134750366,-0.27505558729171753,0.028533324599266052,0.3258824944496155,0.09600101411342621,-0.22271397709846497,0.07055626809597015,-0.011128876358270645,0.024444513022899628,0.14321795105934143,0.15193361043930054,0.06319531798362732,0.006192151457071304,-0.053393762558698654,0.04099878668785095,0.2417009025812149,-0.06605951488018036,-0.0029358044266700745,0.20994862914085388,0.010018661618232727,0.03032630681991577,0.03920631855726242,0.006603404879570007,-0.06941885501146317,0.005325689911842346,-0.13795720040798187,0.0049019455909729,0.0571267306804657,-0.007587127387523651,-0.06672510504722595,0.15146702527999878,-0.15025830268859863,0.09893593937158585,-0.04367721825838089,-0.01236514002084732,-0.029106460511684418,0.023084305226802826,-0.07626675069332123,-0.034469932317733765,0.08266092836856842,-0.1702386438846588,0.16869327425956726,0.13097244501113892,0.010688390582799911,0.07505685836076736,0.11776778846979141,0.09745851159095764,-0.022871486842632294,0.018500693142414093,-0.27028995752334595,-0.0372510701417923,0.16662463545799255,0.029887348413467407,0.08334320038557053,0.025875452905893326
kim8,-0.08850754797458649,0.0907270759344101,0.05090561881661415,-0.05622170865535736,-0.10362269729375839,0.02523556351661682,-0.12538015842437744,-0.08643058687448502,0.1564546376466751,-0.16137701272964478,0.17002072930335999,-0.03265705332159996,-0.15881572663784027,-0.008043669164180756,-0.07767583429813385,0.22332635521888733,-0.160986989736557,-0.20259001851081848,0.014660462737083435,0.030354879796504974,0.08497899770736694,0.04251410812139511,-0.008672721683979034,0.0467064268887043,-0.165946364402771,-0.2857615351676941,-0.09303578734397888,-0.05374370887875557,-0.05744863301515579,-0.08249731361865997,-0.08085935562849045,0.033703871071338654,-0.17573215067386627,0.013790188357234001,0.05267466604709625,0.13243231177330017,0.013043928891420364,-0.030009135603904724,0.18568055331707,0.05589469522237778,-0.2801891565322876,0.06519574671983719,0.11591128259897232,0.24034813046455383,0.17088517546653748,0.017558827996253967,-0.0387616828083992,-0.17293986678123474,0.10485309362411499,-0.1944136619567871,0.03597533330321312,0.14948506653308868,0.07607370615005493,0.09874516725540161,-0.00697210431098938,-0.09699337184429169,0.031572140753269196,0.10610364377498627,-0.1335461437702179,0.009080670773983002,0.09142795950174332,-0.028337381780147552,-0.0063133276998996735,-0.11319509148597717,0.22089983522891998,0.12620043754577637,-0.09653794765472412,-0.23153939843177795,0.07999001443386078,-0.1443604677915573,-0.14521008729934692,0.11796373873949051,-0.1327952742576599,-0.17049813270568848,-0.2626541554927826,-0.03552217036485672,0.35913845896720886,0.13630539178848267,-0.16738519072532654,0.07424712181091309,-0.004606418311595917,-0.05184502154588699,0.09193213284015656,0.14059479534626007,0.006734102964401245,0.05984499678015709,-0.023306548595428467,0.03998409956693649,0.28516557812690735,-0.03901897370815277,0.004158828407526016,0.1698032170534134,0.004765763878822327,0.11630892753601074,0.0028410255908966064,0.029363922774791718,-0.04942606762051582,0.0447659008204937,-0.18683287501335144,-0.06005705147981644,-0.06291661411523819,0.045108601450920105,0.014156162738800049,0.1294562667608261,-0.15421201288700104,0.12477447092533112,0.000299304723739624,-0.021597355604171753,-0.004839956760406494,0.09443262964487076,-0.09124762564897537,-0.05111064016819,0.12698042392730713,-0.20242086052894592,0.18982332944869995,0.14251522719860077,0.06215819716453552,0.04410294443368912,0.1450350433588028,0.10196859389543533,-0.02747860550880432,-0.006012812256813049,-0.21456792950630188,0.00794711709022522,0.10717503726482391,-0.06796176731586456,0.12320203334093094,0.0011124461889266968
kim9,-0.08252860605716705,0.0426996611058712,0.07425172626972198,-0.10170246660709381,-0.09955272078514099,-0.05621957778930664,-0.07901328057050705,-0.15308330953121185,0.12611690163612366,-0.15388385951519012,0.17273391783237457,-0.10714489966630936,-0.14267195761203766,-0.08887229859828949,-0.01392451673746109,0.20212525129318237,-0.15066491067409515,-0.16852015256881714,-0.042048610746860504,0.0024835020303726196,0.09965615719556808,0.020443979650735855,-0.004736531525850296,0.08039472997188568,-0.14963296055793762,-0.35342785716056824,-0.13554276525974274,-0.07172229886054993,-0.10683758556842804,-0.02019020915031433,-0.0292365700006485,0.05310247838497162,-0.19725871086120605,-0.04068674147129059,0.0536138117313385,0.07905899733304977,0.0380186066031456,-0.10040884464979172,0.15279702842235565,-0.0033940672874450684,-0.2804214060306549,0.055573634803295135,0.13271713256835938,0.193414106965065,0.15794992446899414,-0.03999587893486023,0.0003090798854827881,-0.10091614723205566,0.14032575488090515,-0.11794940382242203,-0.015904851257801056,0.10974238812923431,-0.0008184313774108887,0.07216058671474457,0.04108765721321106,-0.09410484880208969,0.04541022330522537,0.12638480961322784,-0.12118525803089142,0.01749882660806179,0.07343070954084396,-0.1405676007270813,-0.04812359809875488,-0.10794823616743088,0.17234408855438232,0.11436904221773148,-0.07859719544649124,-0.25711125135421753,0.08074852079153061,-0.12088914215564728,-0.09851135313510895,0.03990419581532478,-0.19603636860847473,-0.14709573984146118,-0.28881895542144775,-0.003227218985557556,0.33302950859069824,0.08829182386398315,-0.24478381872177124,0.07590047270059586,-0.013998471200466156,0.037356529384851456,0.15083086490631104,0.16586634516716003,0.09234517067670822,0.08673596382141113,-0.05371367186307907,0.01818283647298813,0.2469477355480194,-0.058558300137519836,-0.002534974366426468,0.2471286803483963,-0.04259698837995529,0.06439630687236786,0.049829017370939255,-0.013070836663246155,-0.07893328368663788,0.049189310520887375,-0.1784772276878357,0.01840001344680786,0.036434829235076904,0.00363241508603096,-0.00022716820240020752,0.08333514630794525,-0.14549145102500916,0.08071810007095337,0.003178505226969719,0.018967516720294952,-0.03196856379508972,0.0342705212533474,-0.11561840772628784,-0.05840316414833069,0.10840941220521927,-0.17395669221878052,0.20613551139831543,0.14883610606193542,0.052421245723962784,0.10294165462255478,0.1302197277545929,0.08425132930278778,-0.01733030378818512,0.009847678244113922,-0.1642654836177826,0.0016567111015319824,0.1275048702955246,0.011425882577896118,0.08404020220041275,-0.016598600894212723
t1,-0.13505703210830688,0.12907515466213226,0.06341338157653809,-0.1355198472738266,-0.13698524236679077,-0.03446619212627411,0.030044082552194595,-0.08769446611404419,0.22849738597869873,-0.1678430140018463,0.20929628610610962,-0.004629857838153839,-0.2611166834831238,0.03230699151754379,-0.04284372925758362,0.19971740245819092,-0.21543216705322266,-0.15378662943840027,-0.013903435319662094,-0.07447139918804169,0.03886242210865021,0.10852266848087311,-0.017873575910925865,0.0739307850599289,-0.11801327019929886,-0.27604562044143677,-0.15181708335876465,-0.09934426844120026,-0.10971690714359283,-0.03225908428430557,0.07291877269744873,0.13132718205451965,-0.14602211117744446,-0.03562098741531372,0.028148505836725235,0.0970725268125534,-0.024077825248241425,-0.06704165041446686,0.19854551553726196,0.06761324405670166,-0.22859396040439606,-0.012225762009620667,0.12882401049137115,0.36250320076942444,0.182415172457695,-0.05868195742368698,-0.014376647770404816,-0.09980824589729309,0.19310876727104187,-0.32298576831817627,0.03608185052871704,0.1258375644683838,0.10899113118648529,0.07122506201267242,0.10079670697450638,-0.10759732127189636,0.09821019321680069,0.11777712404727936,-0.24047091603279114,0.03476347029209137,0.15921005606651306,-0.1280200481414795,0.01612088829278946,-0.08383959531784058,0.20406606793403625,0.09144917875528336,-0.1195424348115921,-0.13257253170013428,0.180141419172287,-0.1556781530380249,-0.10445435345172882,0.16335074603557587,-0.15766891837120056,-0.21804504096508026,-0.3192831873893738,0.05779312551021576,0.4585612714290619,0.20800340175628662,-0.05198191478848457,0.04366455227136612,-0.08366411924362183,-0.008674949407577515,0.05754014849662781,0.10894571244716644,-0.0321570448577404,-0.023363538086414337,-0.123660609126091,0.08519704639911652,0.2506957948207855,-0.044720180332660675,-0.05291382223367691,0.28582897782325745,0.025404587388038635,0.014510169625282288,0.015129342675209045,0.09550309926271439,-0.07040706276893616,-0.020244475454092026,-0.19083952903747559,0.03096616268157959,-0.034263476729393005,-0.11131254583597183,-0.044993482530117035,0.12085188925266266,-0.2203933447599411,0.12367850542068481,-0.036558061838150024,-0.05852912366390228,-0.12200552225112915,-0.03107454627752304,-0.10993954539299011,0.03481341153383255,0.16254116594791412,-0.25591281056404114,0.12030826508998871,0.12408673763275146,-0.04439187049865723,0.15192940831184387,0.04092337191104889,0.07002569735050201,-0.08699262142181396,-0.18036797642707825,-0.16352880001068115,-0.08878003060817719,0.10897393524646759,0.021342352032661438,0.08548833429813385,0.029461320489645004
t2,-0.13641667366027832,0.07596532255411148,0.0008396543562412262,-0.14510734379291534,-0.14250347018241882,-0.03547215461730957,0.04389442130923271,-0.07263731211423874,0.24842579662799835,-0.17386353015899658,0.1923048496246338,-0.03800327330827713,-0.20811274647712708,0.0822751373052597,-0.062170058488845825,0.17518165707588196,-0.2177981734275818,-0.17367783188819885,-0.0776970386505127,-0.10454113036394119,0.012586697936058044,-0.0051767416298389435,0.019668065011501312,0.12717708945274353,-0.1283513307571411,-0.3156794309616089,-0.11130645126104355,-0.16989630460739136,0.0009049810469150543,-0.07173220813274384,0.09493362903594971,0.07550933212041855,-0.14791065454483032,-0.037069372832775116,-0.019615784287452698,0.08513589948415756,-0.08480564504861832,-0.12789872288703918,0.25964751839637756,-0.006113730370998383,-0.21746598184108734,-0.017220914363861084,0.11007042229175568,0.2995617389678955,0.19512119889259338,-0.05927099287509918,0.07247214019298553,-0.07586701214313507,0.1372334361076355,-0.3157902956008911,0.07057887315750122,0.11111919581890106,0.1099754348397255,0.1300368458032608,0.12456269562244415,-0.08193989843130112,0.07770960032939911,0.19600678980350494,-0.1950109302997589,0.1272043138742447,0.05374927073717117,-0.04759741574525833,0.05993976444005966,-0.019237026572227478,0.26965993642807007,0.12323412299156189,-0.132758229970932,-0.07550455629825592,0.2065773457288742,-0.1980488896369934,-0.11426440626382828,0.13033689558506012,-0.12568993866443634,-0.23253242671489716,-0.2759224772453308,0.02340872585773468,0.460246741771698,0.21585264801979065,-0.051534075289964676,0.057018354535102844,-0.09553533792495728,-0.07717616856098175,0.0273488387465477,0.18184415996074677,-0.040208712220191956,-0.06440140306949615,-0.05864031985402107,0.07105959951877594,0.26454418897628784,-0.01148243248462677,-0.08103026449680328,0.278408944606781,0.018233388662338257,-0.0366155207157135,-0.011735841631889343,0.12147527933120728,-0.09047767519950867,-0.03854137659072876,-0.0935073122382164,-0.02587900310754776,0.007153451442718506,-0.06335949152708054,-0.0652279481291771,0.0950016975402832,-0.22585585713386536,0.11974961310625076,-0.07054510712623596,-0.02824452519416809,-0.06570751965045929,0.04231221228837967,-0.03066515550017357,-0.005126670002937317,0.16605208814144135,-0.2679537534713745,0.1456211656332016,0.2027757167816162,-0.03694302588701248,0.1523032784461975,0.01682543382048607,0.02012699842453003,0.04429866373538971,-0.12254112958908081,-0.15748366713523865,-0.056223735213279724,0.03854593634605408,0.03742501139640808,0.0423721969127655,0.0732806921005249
t4,-0.03554101288318634,0.0692533478140831,0.0705919936299324,-0.1373881995677948,-0.09353607892990112,0.01101943850517273,-0.005836986005306244,-0.01662176102399826,0.19700568914413452,-0.19637726247310638,0.18342813849449158,-0.04481467604637146,-0.23642748594284058,-0.0009912550449371338,0.0420025959610939,0.1991778016090393,-0.13628628849983215,-0.1710798591375351,-0.10711543262004852,-0.08985273540019989,0.02588370442390442,0.05853792279958725,-0.01993624120950699,0.10507452487945557,-0.2788655161857605,-0.33058062195777893,-0.10355879366397858,-0.13025131821632385,-0.10206347703933716,-0.028921902179718018,0.04366569221019745,0.1091017872095108,-0.1327214241027832,-0.024376407265663147,0.08105526119470596,0.11891995370388031,-0.038731206208467484,-0.04844234138727188,0.17567004263401031,0.08115683495998383,-0.21451061964035034,0.04880361258983612,0.1466061770915985,0.2563754916191101,0.1744975596666336,0.03248929977416992,0.05916614457964897,-0.02657172828912735,0.18246613442897797,-0.3157922327518463,0.09136955440044403,0.07720036804676056,0.09285546839237213,0.16148295998573303,0.17218106985092163,-0.14395678043365479,0.06314235925674438,0.1769976168870926,-0.26902103424072266,0.12297377735376358,0.027235575020313263,-0.08033013343811035,-0.01909536123275757,-0.05500379204750061,0.21702349185943604,0.09787633270025253,-0.18164180219173431,-0.12183649092912674,0.19608387351036072,-0.16973169147968292,-0.058122724294662476,0.1649257391691208,-0.12506534159183502,-0.18169134855270386,-0.26830020546913147,0.05717714875936508,0.4078773260116577,0.24414202570915222,-0.12548406422138214,0.009694591164588928,-0.029450029134750366,-0.044531889259815216,-0.029769159853458405,0.1131148487329483,0.022932827472686768,-0.02595330774784088,-0.007193751633167267,0.053354665637016296,0.21317274868488312,0.030534356832504272,-0.01501542329788208,0.34952232241630554,0.005045093595981598,0.03276446461677551,-0.01788463443517685,0.05636116862297058,-0.17039787769317627,-0.07312425971031189,-0.11444509029388428,-0.047215137630701065,-0.03451631963253021,-0.05630860477685928,-0.022422637790441513,0.06229129433631897,-0.20721396803855896,0.21788650751113892,-0.08855059742927551,-0.012621201574802399,-0.0919727236032486,0.11717230081558228,-0.10132089257240295,0.01164044439792633,0.1542985439300537,-0.29848712682724,0.10682213306427002,0.16905996203422546,0.014035087078809738,0.10478691756725311,0.06500575691461563,0.017371967434883118,0.02503962069749832,-0.10083004832267761,-0.18771512806415558,-0.11448612809181213,0.056761279702186584,-0.06990446150302887,0.06864122301340103,0.04809075966477394
t5,-0.14332622289657593,0.08346901834011078,0.07494374364614487,-0.15144085884094238,-0.1167958527803421,-0.02797006070613861,0.025242816656827927,-0.09768782556056976,0.1968872845172882,-0.21259857714176178,0.22542233765125275,-0.040056221187114716,-0.2693968713283539,0.013853147625923157,-0.038286998867988586,0.19459351897239685,-0.18995434045791626,-0.1339152753353119,-0.10842765122652054,-0.07058452069759369,0.0009749531745910645,0.10477082431316376,-0.023245345801115036,0.1533302515745163,-0.13627567887306213,-0.2893219590187073,-0.11838483065366745,-0.11382094025611877,-0.04525666683912277,-0.029380351305007935,0.015413612127304077,0.033214032649993896,-0.06710025668144226,-0.0420159250497818,0.018569573760032654,0.08136968314647675,-0.06398698687553406,-0.12686806917190552,0.2294805645942688,0.04283977672457695,-0.24083048105239868,0.02617993950843811,0.08587168157100677,0.305551141500473,0.22023624181747437,-0.09692550450563431,0.05904661864042282,-0.0864621251821518,0.18820354342460632,-0.31589534878730774,0.004585240036249161,0.08848963677883148,0.11180703341960907,0.05490082874894142,0.1605067402124405,-0.09761013090610504,0.028523404151201248,0.20334038138389587,-0.2196853756904602,0.051093537360429764,0.08929947018623352,-0.10124053061008453,0.07423420250415802,-0.02000003308057785,0.16617491841316223,0.06615733355283737,-0.15022028982639313,-0.11969710886478424,0.22460880875587463,-0.2183612883090973,-0.07984067499637604,0.12639620900154114,-0.08698365092277527,-0.20650255680084229,-0.2805623412132263,0.0594126358628273,0.4115598499774933,0.23878484964370728,-0.0687381774187088,0.06857653707265854,-0.07340661436319351,-0.053300824016332626,0.04226195067167282,0.11211720108985901,-0.03970472887158394,-0.02681131288409233,-0.08349262177944183,0.045221295207738876,0.23213723301887512,0.023998767137527466,0.012384682893753052,0.3390178084373474,0.06424617767333984,-0.031104043126106262,0.0838477686047554,0.07239838689565659,-0.12438926100730896,-0.03805027902126312,-0.12727639079093933,0.07554265111684799,-0.031246408820152283,-0.10774647444486618,0.034656889736652374,0.05862484872341156,-0.1998346447944641,0.16189731657505035,-0.08241541683673859,-0.049173615872859955,-0.09710556268692017,-0.0014579147100448608,-0.11087723076343536,0.04048072546720505,0.1878012865781784,-0.25800028443336487,0.053816527128219604,0.1294865757226944,0.036157090216875076,0.14031575620174408,0.089686818420887,-0.01311764121055603,-0.0071463435888290405,-0.1208437830209732,-0.14454558491706848,-0.08777308464050293,0.0832844227552414,-0.05461259186267853,0.11095161736011505,0.05228528380393982
t6,-0.11311562359333038,0.09322992712259293,-0.06896078586578369,-0.09611265361309052,-0.1609773337841034,-0.03709658980369568,0.001447521150112152,-0.1577536165714264,0.2099880576133728,-0.18992331624031067,0.16802582144737244,-0.07981853932142258,-0.3176093101501465,0.018687210977077484,-0.02291223406791687,0.20007382333278656,-0.22736743092536926,-0.16866348683834076,-0.05129817873239517,-0.13815684616565704,0.03879590332508087,0.032473742961883545,0.03892168775200844,0.19395866990089417,-0.1432051807641983,-0.27533838152885437,-0.04986269772052765,-0.12690505385398865,-0.08309336751699448,-0.08195727318525314,0.025733068585395813,0.1050221174955368,-0.12314924597740173,0.016167670488357544,0.034360338002443314,0.13925562798976898,-0.04685535654425621,-0.09979049861431122,0.2402995526790619,0.07209405303001404,-0.20379577577114105,0.003296300768852234,0.07021751999855042,0.2742280662059784,0.2058343142271042,-0.08957085758447647,0.05453203618526459,-0.11022964864969254,0.2569941282272339,-0.3399541974067688,0.015168197453022003,0.15150171518325806,0.08717800676822662,0.056158892810344696,0.11744682490825653,-0.1570023000240326,-0.0221860371530056,0.1660211980342865,-0.18124651908874512,0.08344303071498871,0.10959640145301819,-0.07708479464054108,0.03289594501256943,-0.08474281430244446,0.25544440746307373,0.119718037545681,-0.16551774740219116,-0.08246660232543945,0.18671151995658875,-0.1830441802740097,-0.10376131534576416,0.15401054918766022,-0.13546843826770782,-0.253439724445343,-0.2396216094493866,0.07369408756494522,0.3903607726097107,0.19678841531276703,-0.028104327619075775,0.03261025995016098,-0.0659392774105072,-0.007375422865152359,-0.0006313398480415344,0.14774386584758759,-0.016143009066581726,-0.0100465789437294,-0.06904612481594086,0.09504733979701996,0.2423657327890396,-0.04168679565191269,-0.049955759197473526,0.3548620641231537,0.004176177084445953,0.05203333497047424,0.02626265585422516,0.07659690082073212,-0.11473321169614792,-0.05678507313132286,-0.12647023797035217,0.008364453911781311,-0.036606840789318085,-0.11958575248718262,0.02401602268218994,0.01141081377863884,-0.15713812410831451,0.06780852377414703,-0.11534357070922852,-0.026128388941287994,-0.14171633124351501,-0.004198078066110611,-0.11769695580005646,0.04668843746185303,0.14338664710521698,-0.3162679374217987,0.17816776037216187,0.12402741611003876,0.04550483077764511,0.15575304627418518,0.016144882887601852,0.02159138023853302,0.02696067839860916,-0.13707512617111206,-0.06716679781675339,-0.06819024682044983,0.09625770151615143,0.04264688491821289,0.03923351317644119,0.013434141874313354
t7,-0.07323861122131348,0.04971656948328018,0.046176835894584656,-0.12273432314395905,-0.13956916332244873,-0.03384600579738617,0.024468809366226196,-0.053296804428100586,0.23011179268360138,-0.1857478767633438,0.16293223202228546,-0.05337580293416977,-0.2652113437652588,0.07446791976690292,-0.030529260635375977,0.2466668337583542,-0.18891534209251404,-0.11547569930553436,-0.12461990118026733,-0.11915281414985657,-0.0039543211460113525,0.10518863052129745,0.021304674446582794,0.12663304805755615,-0.18491682410240173,-0.23976589739322662,-0.09846581518650055,-0.12631817162036896,-0.12328459322452545,-0.039189212024211884,0.07689637690782547,0.10259899497032166,-0.1211022138595581,0.014143168926239014,0.05094921961426735,0.10381287336349487,-0.07943499833345413,-0.11829960346221924,0.25668883323669434,0.08629431575536728,-0.2041912078857422,-0.042737945914268494,0.09749133139848709,0.24815699458122253,0.1588294506072998,-0.07625970244407654,0.039851441979408264,-0.056161146610975266,0.21465878188610077,-0.31525591015815735,0.04185343161225319,0.12401740252971649,0.06867702305316925,0.1217849850654602,0.16115431487560272,-0.09307882934808731,0.08802317082881927,0.2201603651046753,-0.201837420463562,0.021039748564362526,0.0882786363363266,-0.03676501661539078,0.020165637135505676,-0.03855384141206741,0.21275261044502258,0.09060569852590561,-0.1451808512210846,-0.07319386303424835,0.19216987490653992,-0.14210426807403564,-0.09068010002374649,0.1344599574804306,-0.1524517834186554,-0.20818063616752625,-0.28138601779937744,0.018326595425605774,0.41897425055503845,0.1814197301864624,-0.0575864240527153,0.015520796179771423,-0.04440566897392273,-0.04285310208797455,0.012195788323879242,0.08307135850191116,-0.044245511293411255,-0.0009153783321380615,-0.03537004441022873,0.09717825800180435,0.23335780203342438,-0.02164338529109955,-0.030953064560890198,0.30475834012031555,0.030126124620437622,-0.0301743745803833,0.004977509379386902,0.02529953420162201,-0.06373907625675201,-0.07034344971179962,-0.12237957119941711,0.025940686464309692,0.004097402095794678,-0.08086175471544266,-0.03389338031411171,0.035846907645463943,-0.21506549417972565,0.1346767246723175,-0.049821820110082626,-0.06680464744567871,-0.1414780169725418,0.032084956765174866,-0.18247176706790924,0.0626194179058075,0.20229928195476532,-0.24453949928283691,0.11837384104728699,0.11022476851940155,-0.04558591917157173,0.10771579295396805,0.03429261967539787,0.038878001272678375,-0.04687348008155823,-0.12706086039543152,-0.12298539280891418,-0.10588020086288452,0.12351128458976746,0.02035030722618103,0.09669565409421921,0.03803505375981331
t8,-0.1375153362751007,0.08888184279203415,0.06627381592988968,-0.12022888660430908,-0.1728515923023224,-0.008505105972290039,0.023927129805088043,0.02558383345603943,0.20958589017391205,-0.15698367357254028,0.17313191294670105,-0.0387992188334465,-0.2345040738582611,0.06893269717693329,-0.039999932050704956,0.18674986064434052,-0.16501903533935547,-0.11688782274723053,-0.08837273716926575,-0.08837513625621796,0.009393453598022461,0.05307108908891678,-0.0079612135887146,0.06840468943119049,-0.24330349266529083,-0.3260453939437866,-0.09369882941246033,-0.14556851983070374,-0.018416475504636765,-0.040042415261268616,0.051505088806152344,0.10153218358755112,-0.11669886112213135,-0.04395930841565132,0.05527128279209137,0.07618935406208038,-0.07680352032184601,-0.0519271194934845,0.24304461479187012,0.05834095925092697,-0.1966680884361267,0.015809528529644012,0.09607776999473572,0.3236578702926636,0.12069006264209747,-0.0321802943944931,0.08208145201206207,-0.05014635622501373,0.15986953675746918,-0.28133755922317505,0.05042541027069092,0.11779619753360748,0.13217224180698395,0.12070433795452118,0.1702008992433548,-0.06658149510622025,0.12182171642780304,0.17494848370552063,-0.2453199028968811,0.10273761302232742,0.06606228649616241,-0.024168208241462708,0.03313913196325302,-0.006800271570682526,0.21194516122341156,0.05128166824579239,-0.10033237934112549,-0.09410323202610016,0.22272498905658722,-0.14138004183769226,-0.04256594553589821,0.1114877462387085,-0.1098271980881691,-0.2005407214164734,-0.24848318099975586,0.028425969183444977,0.38651329278945923,0.24005550146102905,-0.08642339706420898,0.05376551300287247,-0.07633472979068756,-0.08670592308044434,0.016933321952819824,0.06351515650749207,-0.09438257664442062,-0.030789658427238464,-0.016370531171560287,0.09522171318531036,0.24507324397563934,-0.024100638926029205,0.0008104965090751648,0.27957695722579956,0.0977681428194046,-0.04235820472240448,0.011915110051631927,-0.002581089735031128,-0.1391538381576538,-0.05870493873953819,-0.10413739085197449,0.00622943788766861,0.018727928400039673,-0.12483912706375122,-0.007937781512737274,0.07593517750501633,-0.2799654006958008,0.15367130935192108,-0.04827609658241272,-0.07005736976861954,-0.09786389768123627,0.0939924418926239,-0.144834965467453,0.007447279989719391,0.17928335070610046,-0.2539064884185791,0.13952742516994476,0.18997660279273987,-0.010016126558184624,0.10499593615531921,0.08589209616184235,-0.04826369881629944,0.026808958500623703,-0.07661514729261398,-0.1025218814611435,-0.10717113316059113,0.0932835042476654,-0.05724988877773285,0.0537235364317894,0.050829701125621796
t9,-0.07708927989006042,0.07658764719963074,0.016505829989910126,-0.1835346519947052,-0.11357443779706955,-0.04192610830068588,0.0282263346016407,-0.05151350051164627,0.2789623737335205,-0.22973467409610748,0.2025185227394104,-0.002889677882194519,-0.24612149596214294,0.024298034608364105,-0.01456461101770401,0.15976932644844055,-0.2664182186126709,-0.18230518698692322,-0.08831726014614105,-0.09828158468008041,0.025877654552459717,0.022053521126508713,0.0007834527641534805,0.11059115082025528,-0.17033980786800385,-0.33715933561325073,-0.12384216487407684,-0.14967599511146545,-0.044940657913684845,-0.08768755197525024,0.048133909702301025,0.059155285358428955,-0.18346889317035675,-0.05281125009059906,-0.0022582635283470154,0.10666175931692123,-0.06779195368289948,-0.10846984386444092,0.23859548568725586,0.07105809450149536,-0.1770283728837967,0.02577647566795349,0.05314921587705612,0.29530590772628784,0.20298245549201965,-0.04270631819963455,0.03194832429289818,-0.055155057460069656,0.24019883573055267,-0.30840399861335754,0.05911322310566902,0.13097627460956573,0.12568774819374084,0.12930455803871155,0.09698696434497833,-0.09279200434684753,0.08292359113693237,0.17699861526489258,-0.25369399785995483,0.06496173143386841,0.0990503579378128,-0.09658898413181305,0.02025262638926506,0.003357015550136566,0.2224504053592682,0.0932784155011177,-0.1345272958278656,-0.1118222028017044,0.17313960194587708,-0.18955829739570618,-0.04421287029981613,0.10234857350587845,-0.14313256740570068,-0.21051083505153656,-0.19814929366111755,0.08500518649816513,0.42182356119155884,0.19875052571296692,-0.06018194556236267,0.032288216054439545,-0.11269494891166687,-0.06045191362500191,0.037220548838377,0.09766142070293427,-0.021588090807199478,-0.02457820624113083,-0.08257611840963364,0.1051010936498642,0.24328966438770294,-0.024392686784267426,-0.038555361330509186,0.30003708600997925,0.017934657633304596,0.021825551986694336,0.039153292775154114,0.023814886808395386,-0.12842606008052826,-0.00783277302980423,-0.131812185049057,0.0484398752450943,-0.03944683074951172,-0.08344365656375885,-0.07741399109363556,0.017956798896193504,-0.15373516082763672,0.1291794329881668,-0.061316415667533875,-0.06096216291189194,-0.1171238049864769,-0.00021257996559143066,-0.14288035035133362,-0.0568835586309433,0.14802202582359314,-0.2774137854576111,0.15091948211193085,0.17665579915046692,-0.0026567913591861725,0.17408961057662964,0.02864012122154236,0.02093643695116043,0.015535153448581696,-0.10529860854148865,-0.1495307832956314,-0.06917600333690643,0.09971674531698227,0.05880817770957947,0.0816948190331459,-0.015858888626098633
